<?xml version="1.0"?>
<opencv_storage>
<cascade>
  <stageType>BOOST</stageType>
  <featureType>HAAR</featureType>
  <height>32</height>
  <width>32</width>
  <stageParams>
    <boostType>GAB</boostType>
    <minHitRate>9.9500000476837158e-01</minHitRate>
    <maxFalseAlarm>5.0000000000000000e-01</maxFalseAlarm>
    <weightTrimRate>9.4999999999999996e-01</weightTrimRate>
    <maxDepth>1</maxDepth>
    <maxWeakCount>100</maxWeakCount></stageParams>
  <featureParams>
    <maxCatCount>0</maxCatCount>
    <featSize>1</featSize>
    <mode>BASIC</mode></featureParams>
  <stageNum>5</stageNum>
  <stages>
    <!-- stage 0 -->
    <_>
      <maxWeakCount>2</maxWeakCount>
      <stageThreshold>-2.8762370347976685e-01</stageThreshold>
      <weakClassifiers>
        <_>
          <internalNodes>
            0 -1 4 1.3356992974877357e-02</internalNodes>
          <leafValues>
            7.3831772804260254e-01 -9.9277979135513306e-01</leafValues></_>
        <_>
          <internalNodes>
            0 -1 3 1.2376506812870502e-02</internalNodes>
          <leafValues>
            7.0515608787536621e-01 -1.</leafValues></_></weakClassifiers></_>
    <!-- stage 1 -->
    <_>
      <maxWeakCount>2</maxWeakCount>
      <stageThreshold>-2.4081672728061676e-01</stageThreshold>
      <weakClassifiers>
        <_>
          <internalNodes>
            0 -1 6 -5.2005434408783913e-03</internalNodes>
          <leafValues>
            -9.0443688631057739e-01 7.5824177265167236e-01</leafValues></_>
        <_>
          <internalNodes>
            0 -1 0 5.8572674170136452e-03</internalNodes>
          <leafValues>
            -1. 6.6362011432647705e-01</leafValues></_></weakClassifiers></_>
    <!-- stage 2 -->
    <_>
      <maxWeakCount>1</maxWeakCount>
      <stageThreshold>1.</stageThreshold>
      <weakClassifiers>
        <_>
          <internalNodes>
            0 -1 2 -1.2396243214607239e-01</internalNodes>
          <leafValues>
            1. -1.</leafValues></_></weakClassifiers></_>
    <!-- stage 3 -->
    <_>
      <maxWeakCount>1</maxWeakCount>
      <stageThreshold>1.</stageThreshold>
      <weakClassifiers>
        <_>
          <internalNodes>
            0 -1 7 -1.6476546879857779e-03</internalNodes>
          <leafValues>
            -1. 1.</leafValues></_></weakClassifiers></_>
    <!-- stage 4 -->
    <_>
      <maxWeakCount>2</maxWeakCount>
      <stageThreshold>-1.0018748044967651e-01</stageThreshold>
      <weakClassifiers>
        <_>
          <internalNodes>
            0 -1 1 -3.3494422677904367e-04</internalNodes>
          <leafValues>
            -9.7260272502899170e-01 9.5652174949645996e-01</leafValues></_>
        <_>
          <internalNodes>
            0 -1 5 -1.2308155186474323e-02</internalNodes>
          <leafValues>
            -9.8625808954238892e-01 8.7241524457931519e-01</leafValues></_></weakClassifiers></_></stages>
  <features>
    <_>
      <rects>
        <_>
          0 0 26 2 -1.</_>
        <_>
          13 0 13 2 2.</_></rects>
      <tilted>0</tilted></_>
    <_>
      <rects>
        <_>
          2 11 30 14 -1.</_>
        <_>
          2 11 15 7 2.</_>
        <_>
          17 18 15 7 2.</_></rects>
      <tilted>0</tilted></_>
    <_>
      <rects>
        <_>
          3 2 18 14 -1.</_>
        <_>
          3 9 18 7 2.</_></rects>
      <tilted>0</tilted></_>
    <_>
      <rects>
        <_>
          3 11 16 17 -1.</_>
        <_>
          11 11 8 17 2.</_></rects>
      <tilted>0</tilted></_>
    <_>
      <rects>
        <_>
          8 4 24 16 -1.</_>
        <_>
          16 4 8 16 3.</_></rects>
      <tilted>0</tilted></_>
    <_>
      <rects>
        <_>
          11 0 10 32 -1.</_>
        <_>
          11 0 5 16 2.</_>
        <_>
          16 16 5 16 2.</_></rects>
      <tilted>0</tilted></_>
    <_>
      <rects>
        <_>
          14 16 18 8 -1.</_>
        <_>
          23 16 9 8 2.</_></rects>
      <tilted>0</tilted></_>
    <_>
      <rects>
        <_>
          15 13 15 7 -1.</_>
        <_>
          20 13 5 7 3.</_></rects>
      <tilted>0</tilted></_></features></cascade>
</opencv_storage>
